0.14995816,-0.17133328,0.04272125,-0.022744391,-0.020050313,-0.071681656,0.077869065,-0.11001801,0.090416215,0.10730582,0.14376317,0.08273494,-0.16426411,-0.10447845,0.10261965,0.0034988392,-0.1769688,-0.13969947,0.13622276,0.08706928,-0.114332706,-0.08047664,-0.21472429,-0.047450777,-0.16663288,-0.17512096,-0.04454937,-0.0064196046,-0.1078218,0.07434831
-0.11739851,0.1595444,0.120389655,-0.15844877,-0.051211145,0.0010801146,0.021955226,0.044355143,0.057504404,0.00229237,-0.09631074,0.07858803,-0.18398099,-0.1159095,-0.0520381,-0.07304121,-0.048053224,-0.13393247,-0.022506515,0.055535972,-0.10305426,0.00615899,0.14981478,0.0027997086,0.017744983,-4.56259e-05,0.05291685,0.13189083,0.18829371,0.1315023
0.19066177,0.0036300055,-0.15082943,-0.07411478,0.14004129,0.017857822,-0.07825037,-0.14231478,-0.13370672,-0.1306937,-0.016969372,0.122004084,0.12346706,-0.15469274,0.13151217,-0.1925523,-0.088041596,-0.12334242,-0.086119905,-0.08731718,-0.21351077,-0.20668526,-0.08722656,-0.06205209,-0.124040544,0.019705297,-0.21389717,-0.06117881,0.11289425,-0.123113506
0.17765985,0.07854881,-0.15525639,0.12435522,-0.009622434,-0.06740439,0.1550053,-0.15010765,0.047864486,-0.020606056,0.14541148,0.06745721,0.10651731,0.08056167,-0.030770143,-0.07314474,-0.18496737,0.064523906,0.10928368,0.08874111,-0.16352144,-0.026139384,-0.17030784,-0.1467897,-0.13454916,0.028138895,-0.14344443,-0.03807421,-0.02545332,0.08380252
-0.11862667,-0.10660358,-0.091161124,0.14186876,-0.047999304,0.17522667,0.07956234,0.019081417,0.041131437,-0.0097453445,0.04543612,-0.016852371,0.026990587,0.047344353,-0.12312039,-0.14805757,0.09525896,-0.2001948,-0.06672885,0.12626722,0.013513237,-0.046667274,-0.22107616,0.020417228,-0.17275687,-0.10368417,-0.11366855,-0.07855422,-0.048110284,0.09928065
0.035302043,0.17570017,0.12080408,-0.10703643,0.09298937,-0.115122646,-0.06853881,0.05090013,0.08857773,0.15443958,-0.04398927,0.01648687,0.112496726,-0.1607279,0.14489128,-0.18389587,-0.03012556,-0.063554525,-0.13001189,-0.010266626,0.11809287,-0.08572542,-0.14809689,-0.11199731,-0.20717792,0.05003091,-0.12049441,-0.15413375,-0.1365011,0.07295066
0.076907866,0.12087259,0.0512675,-0.07508726,-0.06897131,0.03218527,0.13569643,0.05195048,-0.12837769,-0.11247928,-0.19549505,0.014624185,-0.13047156,-0.18717274,0.13999133,-0.06396311,0.033539146,0.10638691,0.061862264,-0.06628563,-0.0929771,0.19939151,0.09415683,0.22268477,-0.016007619,0.10767732,0.01276014,0.04571209,-0.05870506,0.11513422
0.04851844,-0.012709728,-0.04788806,-0.118928306,0.11795513,-0.14624044,0.06816499,-0.05952225,-0.10881578,0.020059723,-0.105573915,0.03036457,0.022527598,-0.14702874,0.021019824,0.10143089,0.0957824,0.00040992664,-0.12535225,-0.0034852012,0.08706487,-0.043393694,0.09784759,0.1537035,-0.07646102,0.025143264,0.09917815,0.037670437,0.03791961,0.04589223
-0.15059565,0.007393737,0.12173344,0.16045365,0.10129437,0.016385391,0.08017314,-0.08713593,-0.16795446,-0.16727996,0.1735595,0.10662,-0.13684599,0.062183835,0.13042252,0.19896585,0.17580158,0.1574721,-0.024770139,-0.046620887,0.16627039,0.11826657,-0.08971219,0.18727529,0.100632034,0.11550238,-0.09813554,0.068487376,-0.048504606,0.15840316
