0.10555864870548248291,-0.39519324898719787598,-0.15332667529582977295,1.40310955047607421875,0.32853975892066955566,-0.56418603658676147461,0.27649539709091186523,-0.95474964380264282227,-0.26346573233604431152,-0.00693786097690463066,0.02876017428934574127,0.05368778854608535767,0.01595222018659114838,-0.12970773875713348389,0.08477682620286941528,0.07832186669111251831,-0.78818935155868530273,-0.66857445240020751953,0.21381750702857971191,1.23293805122375488281,0.23064537346363067627,-1.01302146911621093750,0.77105361223220825195,0.10166737437248229980,-1.12344193458557128906,0.37772923707962036133,0.75707596540451049805,-0.00569565221667289734,0.45291838049888610840,-0.51421570777893066406
0.14315326511859893799,-0.51434332132339477539,-0.21665279567241668701,0.98595392704010009766,0.47361138463020324707,-0.18772061169147491455,0.15066026151180267334,-0.56872093677520751953,0.10834076255559921265,-0.18914942443370819092,-0.25557014346122741699,-0.02268620766699314117,0.06477528065443038940,-0.14281316101551055908,0.22330507636070251465,0.32652372121810913086,-0.24448938667774200439,-0.08109690248966217041,0.08270861953496932983,0.37950405478477478027,-0.06689195334911346436,-0.26049578189849853516,0.03898765146732330322,-0.21775428950786590576,-0.96838039159774780273,0.09061140567064285278,0.50319743156433105469,0.29192259907722473145,0.27883154153823852539,0.16349408030509948730
0.16920554637908935547,0.23099106550216674805,0.08015394210815429688,0.77463728189468383789,0.13531695306301116943,-0.30857351422309875488,-0.38714417815208435059,0.29223430156707763672,0.77809917926788330078,-1.09823524951934814453,0.19943325221538543701,-0.12986606359481811523,0.09022800624370574951,-0.22394898533821105957,0.08076681196689605713,-0.13016992807388305664,-0.35977101325988769531,0.02170453779399394989,-0.67669445276260375977,0.38344022631645202637,-0.02879234403371810913,1.21547579765319824219,-0.55362772941589355469,-1.09762525558471679688,-1.45747709274291992188,0.76737487316131591797,0.77273356914520263672,0.80040413141250610352,1.43811690807342529297,-0.06257306039333343506
0.29703474044799804688,0.04830947518348693848,0.09216775745153427124,-0.14284092187881469727,0.10399074107408523560,0.22758384048938751221,-0.49401560425758361816,0.68978613615036010742,0.15303489565849304199,-0.25606667995452880859,-0.04372224584221839905,-0.14381051063537597656,-0.26224717497825622559,0.12390057742595672607,-0.13387888669967651367,0.27784517407417297363,0.36943125724792480469,0.47958362102508544922,0.05925161764025688171,-0.92119467258453369141,-0.60637813806533813477,0.85732930898666381836,-0.46220964193344116211,-0.15416505932807922363,0.25383540987968444824,0.17299926280975341797,-0.20932920277118682861,0.02314044348895549774,-0.32731139659881591797,0.19196519255638122559
-0.54934126138687133789,0.00365034327842295170,0.29598596692085266113,-0.93324995040893554688,-0.40957975387573242188,0.41910973191261291504,1.32064843177795410156,0.14780856668949127197,-0.02700336650013923645,-0.44524922966957092285,0.42480576038360595703,-0.06098524853587150574,0.35540348291397094727,-0.02259496599435806274,-0.24446055293083190918,-0.79878556728363037109,-0.23329909145832061768,0.61025345325469970703,0.25052621960639953613,1.59375250339508056641,1.07966589927673339844,-0.86169463396072387695,-0.33200687170028686523,-0.57481074333190917969,-0.54976648092269897461,0.39827275276184082031,0.37791651487350463867,-0.45773977041244506836,0.55519592761993408203,-0.12376594543457031250
0.28196138143539428711,-0.27534905076026916504,-0.20197480916976928711,-0.35011467337608337402,0.13593909144401550293,0.45668995380401611328,0.31056171655654907227,0.40620243549346923828,0.03737804293632507324,-0.04307448118925094604,-0.35501751303672790527,0.10529769957065582275,-0.11637318879365921021,-0.01730709522962570190,0.06686732918024063110,0.33988848328590393066,0.68216121196746826172,0.71670365333557128906,-0.01825037039816379547,-0.61738449335098266602,-0.54447275400161743164,0.45706933736801147461,-0.57667183876037597656,-0.56983232498168945312,0.17747303843498229980,-0.36319160461425781250,-0.11931644380092620850,0.47486409544944763184,-0.51402276754379272461,0.27138990163803100586
-0.36187529563903808594,0.33604723215103149414,0.26299855113029479980,-0.96639764308929443359,-0.77272605895996093750,-0.15115508437156677246,0.34405419230461120605,0.51164710521697998047,0.65572494268417358398,-0.40492999553680419922,0.41178297996520996094,-0.21103727817535400391,0.23806145787239074707,0.24949005246162414551,-0.07685738056898117065,-0.59897255897521972656,-0.13539096713066101074,0.05586957558989524841,-0.30167394876480102539,0.58648645877838134766,0.59425818920135498047,0.33509534597396850586,-0.44570484757423400879,-1.07561075687408447266,-0.30695891380310058594,0.47771754860877990723,0.28240326046943664551,0.04740055277943611145,1.35217523574829101562,-0.19787000119686126709
0.03139103204011917114,0.21558703482151031494,0.09044817090034484863,-0.58204764127731323242,-0.33571529388427734375,-0.16551107168197631836,-0.03694112971425056458,0.23347279429435729980,0.19331915676593780518,0.03907994553446769714,0.05385446175932884216,0.09383232891559600830,-0.11477093398571014404,0.18700575828552246094,-0.11873191595077514648,-0.30286496877670288086,0.07359993457794189453,-0.27553427219390869141,-0.25668007135391235352,-0.12006879597902297974,0.06524280458688735962,0.24970699846744537354,0.02686420269310474396,-0.02919605560600757599,0.27959135174751281738,-0.09584224224090576172,-0.06665558367967605591,0.01567025668919086456,0.21750223636627197266,-0.04283896461129188538
-0.15340392291545867920,0.48299595713615417480,0.14146310091018676758,-0.87216091156005859375,-0.67167824506759643555,-0.25375047326087951660,-0.26687121391296386719,0.22337941825389862061,0.28592124581336975098,0.28099924325942993164,0.48511573672294616699,-0.02683513797819614410,-0.05728370323777198792,0.20143885910511016846,-0.25070649385452270508,-0.68726766109466552734,-0.24628695845603942871,-0.36040163040161132812,-0.28049358725547790527,-0.30757483839988708496,0.39974504709243774414,0.50213950872421264648,0.24113610386848449707,0.25592240691184997559,0.47764065861701965332,0.10265090316534042358,-0.36197346448898315430,-0.34598764777183532715,0.47477719187736511230,-0.43655845522880554199
