0.15012166,-0.1711438,0.042603683,-0.022711352,-0.019929241,-0.071679026,0.07787888,-0.109927915,0.09032472,0.10726256,0.1436689,0.08262996,-0.16440424,-0.104602754,0.10240162,0.0036219473,-0.17667899,-0.13949054,0.13631238,0.08732125,-0.11412823,-0.080328114,-0.21451019,-0.047213696,-0.16650538,-0.17495164,-0.0444144,-0.0062679457,-0.10770448,0.07448024
-0.11745178,0.15945244,0.120206416,-0.15859063,-0.051328044,0.0010135557,0.021972412,0.04432896,0.05750352,0.0021667262,-0.096503444,0.07835676,-0.18418868,-0.11606047,-0.052183796,-0.07269307,-0.047671303,-0.1335701,-0.022183934,0.055886194,-0.102698885,0.0065589007,0.15024686,0.003208849,0.018139772,0.00029877355,0.0532447,0.13219333,0.18860409,0.13184932
0.19080961,0.0038425622,-0.15064345,-0.073910415,0.1402495,0.017942557,-0.078264244,-0.1422275,-0.13378382,-0.13058135,-0.01680476,0.12221034,0.12360423,-0.15462165,0.13153082,-0.19284849,-0.08829696,-0.12361617,-0.08639472,-0.08754895,-0.2137778,-0.20703971,-0.08757821,-0.06236259,-0.124407835,0.01942537,-0.2141768,-0.0614182,0.11261978,-0.123430155
0.17787552,0.078816526,-0.15513878,0.12455309,-0.009384988,-0.067303255,0.1550222,-0.15000479,0.047851223,-0.020487675,0.14554587,0.067622624,0.10663335,0.08062276,-0.030798431,-0.07349678,-0.18522564,0.06422227,0.10892758,0.08848199,-0.16382271,-0.026523735,-0.17068838,-0.14712918,-0.13493283,0.027817966,-0.1437757,-0.038368944,-0.025780857,0.083444774
-0.11836295,-0.10625745,-0.09111813,0.14205322,-0.047710985,0.17531301,0.0795596,0.019216284,0.04106079,-0.009619149,0.04558636,-0.016671253,0.027118666,0.047445104,-0.12313308,-0.14841679,0.0950744,-0.20045158,-0.06710497,0.1260666,0.013259036,-0.0470366,-0.22140914,0.02013208,-0.17313932,-0.10395375,-0.11396067,-0.07879339,-0.048393708,0.09898565
0.035574857,0.1760331,0.12098137,-0.106770635,0.0932937,-0.114982724,-0.06851835,0.05101794,0.088598646,0.15462004,-0.043778464,0.016743498,0.11270611,-0.1606022,0.14490396,-0.18443373,-0.03056583,-0.064041436,-0.13055451,-0.0107034305,0.11760709,-0.08631345,-0.14869994,-0.1125475,-0.20775346,0.04952586,-0.12100539,-0.1545993,-0.13700074,0.07240503
0.076833956,0.12073475,0.050927836,-0.07533376,-0.06914653,0.03206778,0.13569117,0.051882163,-0.12832035,-0.11260956,-0.19570169,0.014366553,-0.13062473,-0.18723683,0.13991906,-0.06361548,0.033955023,0.10676841,0.062149834,-0.065927364,-0.09260328,0.19982821,0.09461965,0.22311519,-0.015556031,0.10805862,0.013125312,0.046041824,-0.058342163,0.11556021
0.048375174,-0.012902073,-0.048066378,-0.11911907,0.11776058,-0.14633717,0.068166316,-0.05958699,-0.10882431,0.019910518,-0.10577573,0.030121522,0.022318283,-0.14717293,0.020924043,0.10186063,0.09619008,0.0008250485,-0.12493573,-0.00309727,0.08747538,-0.042914744,0.09835058,0.15417184,-0.07598949,0.025554312,0.09958232,0.03804043,0.038308393,0.046320047
-0.15081285,0.0071401456,0.121466435,0.16017121,0.10103754,0.016225949,0.080133416,-0.08722206,-0.16803235,-0.16746524,0.17334148,0.10635342,-0.1370649,0.062073052,0.13039073,0.19953012,0.17635705,0.15803811,-0.02421882,-0.04608802,0.16683662,0.118903115,-0.08902657,0.1879164,0.10124431,0.116086766,-0.09755937,0.06903187,-0.047937702,0.15903355
