0.15585203468799591064,0.03108348138630390167,-0.16043095290660858154,0.01084626559168100357,-0.11559786647558212280,-0.17415474355220794678,0.16285136342048645020,0.22283515334129333496,-0.29039835929870605469,0.03437865898013114929,-0.03212453052401542664,-0.04609839245676994324,-0.08623059839010238647,0.07470686733722686768,-0.10701730847358703613,0.01060649938881397247,0.04495151340961456299,-1.17999124526977539062,-0.36475393176078796387,0.87202000617980957031,0.04625452682375907898,0.04745470359921455383,0.54956644773483276367,0.35663756728172302246,-0.77449476718902587891,0.16097587347030639648,0.36211866140365600586,0.28746739029884338379,-0.01350671052932739258,-0.63618439435958862305
-0.01016272138804197311,-0.12771035730838775635,-0.13111647963523864746,0.00103500240948051214,0.02737152017652988434,-0.06956349313259124756,0.10861802101135253906,-0.10805271565914154053,-0.04481515660881996155,0.12523163855075836182,-0.14960929751396179199,-0.01082295179367065430,0.01832806318998336792,0.02244204841554164886,0.04608586803078651428,0.19104561209678649902,0.27089560031890869141,-0.25841218233108520508,0.01250683981925249100,0.50561195611953735352,-0.42181733250617980957,-0.08975880593061447144,-0.07242852449417114258,0.08080510795116424561,-0.63559126853942871094,0.03652917966246604919,0.39357122778892517090,0.26230263710021972656,0.46446007490158081055,0.13767579197883605957
-0.10307200253009796143,0.03013626672327518463,0.00160259392578154802,0.05133338272571563721,0.11549004912376403809,0.17517888545989990234,0.11690528690814971924,0.20553882420063018799,-0.81709754467010498047,-0.16320957243442535400,-0.07851479202508926392,0.16252452135086059570,0.01409090869128704071,-0.08812367171049118042,-0.13573075830936431885,-0.93806064128875732422,-0.21607790887355804443,0.13339050114154815674,0.28754085302352905273,2.28105878829956054688,-1.09009504318237304688,0.56600797176361083984,-0.60463106632232666016,0.77040451765060424805,-1.13353657722473144531,0.27449098229408264160,1.02937924861907958984,0.75744372606277465820,2.32404351234436035156,-0.46818587183952331543
0.04971922934055328369,-0.07246816158294677734,0.07562406361103057861,-0.16134306788444519043,-0.01148299966007471085,0.15995208919048309326,-0.07363207638263702393,0.24617928266525268555,-0.16006538271903991699,-0.16399490833282470703,0.11666946113109588623,-0.02677526324987411499,-0.08598247170448303223,0.14863482117652893066,-0.14922170341014862061,0.28817218542098999023,-0.26053786277770996094,0.87395769357681274414,0.08235916495323181152,-0.19395317137241363525,1.06327307224273681641,0.79072010517120361328,-0.92544633150100708008,-0.31628543138504028320,0.45199340581893920898,-0.10811344534158706665,0.42122918367385864258,0.03377863392233848572,0.34168273210525512695,0.00872619263827800751
-0.15479952096939086914,-0.09123617410659790039,0.07363454997539520264,-0.08991948515176773071,-0.00331594073213636875,0.01798409223556518555,0.11682455986738204956,-0.28711116313934326172,-0.23165906965732574463,-0.10620032995939254761,0.13468699157238006592,-0.00112824223469942808,0.17440296709537506104,0.05688949674367904663,0.02745304256677627563,-0.16696092486381530762,0.36760443449020385742,0.51627421379089355469,0.22797854244709014893,0.44634947180747985840,-1.35980999469757080078,-0.60351896286010742188,-0.05555073916912078857,-0.00068086566170677543,-0.54057615995407104492,0.16243878006935119629,0.24187412858009338379,0.08089698851108551025,0.80923736095428466797,0.02533302083611488342
0.11203256994485855103,-0.12368226051330566406,-0.04828049242496490479,-0.05174224823713302612,-0.02546417154371738434,0.00760717364028096199,0.14969463646411895752,-0.06249947845935821533,0.31328549981117248535,0.11141191422939300537,-0.11330207437276840210,0.10702557116746902466,-0.12514916062355041504,-0.08465044200420379639,0.05301873385906219482,0.39028277993202209473,0.29994693398475646973,1.03761458396911621094,0.28044804930686950684,-0.95473235845565795898,-0.21001851558685302734,0.08656307309865951538,-0.50295603275299072266,-0.61474746465682983398,0.55509942770004272461,-0.19551382958889007568,-0.24553726613521575928,-0.24268372356891632080,-0.35988065600395202637,0.38522371649742126465
-0.14527192711830139160,-0.17955045402050018311,0.07915224879980087280,-0.08818276971578598022,-0.12173279374837875366,-0.10423723608255386353,0.10443210601806640625,0.06234144791960716248,0.03691773489117622375,0.06596270203590393066,-0.06017832085490226746,-0.04585880413651466370,0.05837636813521385193,0.15078534185886383057,0.04967869445681571960,-0.89064842462539672852,-0.31719776988029479980,0.64323502779006958008,0.47617149353027343750,-0.44384855031967163086,-1.22240233421325683594,-0.12292432039976119995,-0.10037599503993988037,0.44839477539062500000,0.19905924797058105469,0.29938319325447082520,-0.24307167530059814453,-0.27192223072052001953,0.85663914680480957031,0.00900066178292036057
0.08771122992038726807,-0.06756675243377685547,0.04535443335771560669,-0.04514043778181076050,-0.00821705907583236694,-0.11139410734176635742,0.06101638078689575195,-0.00600501010194420815,0.14906841516494750977,-0.04154585674405097961,-0.11481276899576187134,0.12416824698448181152,-0.13552077114582061768,0.07119484990835189819,-0.06169547140598297119,-0.62358719110488891602,-0.00328762200661003590,0.26295569539070129395,0.34538558125495910645,-0.40290495753288269043,-1.07095372676849365234,-0.39623478055000305176,0.24761238694190979004,0.19340756535530090332,0.23882663249969482422,0.14756846427917480469,-0.35210308432579040527,-0.22146023809909820557,0.02304927632212638855,0.12611657381057739258
0.04416630417108535767,-0.10172534734010696411,-0.00954991113394498825,0.06019707024097442627,0.01353562623262405396,0.00734069803729653358,0.02285941876471042633,-0.09001497924327850342,-0.11695624142885208130,0.12625223398208618164,0.15998953580856323242,0.06270950287580490112,0.01538103539496660233,0.09417019784450531006,-0.09132967889308929443,-1.23506820201873779297,-0.87035828828811645508,0.54489266872406005859,0.39078468084335327148,-0.23419879376888275146,-0.37544652819633483887,0.29539537429809570312,-0.09861662238836288452,0.81250977516174316406,0.38577184081077575684,0.12652927637100219727,-0.19185066223144531250,0.02374548092484474182,0.86546534299850463867,-0.50901627540588378906
