0.07123160362243652344,-0.14008936285972595215,-0.13316594064235687256,0.20682144165039062500,-0.13636527955532073975,-0.30587208271026611328,0.40077245235443115234,-0.49342292547225952148,-0.60521286725997924805,0.39091733098030090332,0.39621353149414062500,-0.05912097916007041931,0.17971841990947723389,-0.19578242301940917969,-0.14437900483608245850,-1.00984466075897216797,-0.84648227691650390625,-0.60879296064376831055,0.51066905260086059570,2.52201485633850097656,-0.98591536283493041992,-1.14287555217742919922,0.79439127445220947266,-0.53680658340454101562,-1.38951170444488525391,0.80077892541885375977,0.65689349174499511719,0.19791571795940399170,0.95600360631942749023,-0.68383646011352539062
0.06842807680368423462,-0.87671577930450439453,-0.27806359529495239258,1.24121856689453125000,0.90263837575912475586,-0.22074335813522338867,-0.60245698690414428711,-0.24978923797607421875,-0.02528895437717437744,0.51795607805252075195,-0.64280807971954345703,0.05903238803148269653,-0.20181190967559814453,0.12877126038074493408,0.01634430140256881714,1.08005249500274658203,0.27894893288612365723,-0.32027775049209594727,0.45647293329238891602,-1.77323150634765625000,0.28621804714202880859,-0.41437426209449768066,0.76863789558410644531,0.12440507858991622925,0.73382598161697387695,-0.71484476327896118164,-0.19770184159278869629,-0.95623451471328735352,-2.04495000839233398438,0.26114982366561889648
0.24577069282531738281,0.59660720825195312500,0.05008605867624282837,0.21796379983425140381,-0.26830217242240905762,-0.67378205060958862305,-0.74788880348205566406,0.14240406453609466553,0.52088767290115356445,-0.47331139445304870605,-0.05552764236927032471,-0.01184513140469789505,-0.09538390487432479858,0.13792131841182708740,-0.01041213050484657288,0.05264532193541526794,-0.26608285307884216309,-0.38527560234069824219,-0.67364829778671264648,-0.76395344734191894531,0.37381872534751892090,1.29970204830169677734,-0.48448625206947326660,0.35029172897338867188,-0.46551170945167541504,0.16585794091224670410,0.21292197704315185547,0.71700882911682128906,0.66485345363616943359,-0.29059532284736633301
-0.46904170513153076172,0.55889570713043212891,-0.09054502844810485840,-2.38041973114013671875,-0.72227966785430908203,0.83829152584075927734,0.82199287414550781250,0.41609895229339599609,0.56118923425674438477,-0.09145029634237289429,0.30630579590797424316,0.00251812627539038658,0.02504952810704708099,0.30291363596916198730,-0.49783468246459960938,-0.48792529106140136719,0.41131013631820678711,0.74958592653274536133,-0.16751791536808013916,-0.52300244569778442383,0.28186532855033874512,-0.07014515250921249390,-0.17841665446758270264,0.20434254407882690430,1.40104436874389648438,-0.35175117850303649902,-0.87893110513687133789,-1.28906071186065673828,-0.10296129435300827026,0.14837293326854705811
0.12447923421859741211,-0.42386731505393981934,0.26766687631607055664,0.48516672849655151367,0.23727440834045410156,0.45828691124916076660,0.55693966150283813477,0.41242903470993041992,-0.54038769006729125977,-0.61938345432281494141,-0.03212942928075790405,-0.02842009440064430237,0.08840635418891906738,-0.15589001774787902832,0.30738946795463562012,0.35103061795234680176,0.29726564884185791016,0.72249859571456909180,0.13786356151103973389,0.36762896180152893066,-0.27068039774894714355,0.30034530162811279297,-1.22753512859344482422,-0.38994872570037841797,-0.65757501125335693359,0.32937294244766235352,0.63819205760955810547,0.90551286935806274414,0.32756993174552917480,0.20649117231369018555
