0.49084177613258361816,-0.60165631771087646484,-0.21104493737220764160,1.56644284725189208984,0.02186010964214801788,-0.59939450025558471680,0.12630113959312438965,-0.60900545120239257812,-0.40990409255027770996,0.10305743664503097534,0.24815662205219268799,-0.08238785713911056519,-0.08471672236919403076,0.02787150442600250244,-0.02905617840588092804,0.12675841152667999268,-0.74354845285415649414,-0.46359977126121520996,-0.16426417231559753418,1.02244305610656738281,0.26382029056549072266,-1.07372045516967773438,0.63810896873474121094,-0.17735221982002258301,-1.01786255836486816406,0.38462314009666442871,0.74100267887115478516,0.21815700829029083252,0.62074267864227294922,-0.47249490022659301758
0.30977454781532287598,-0.53480929136276245117,-0.20463232696056365967,1.03852117061614990234,0.18785065412521362305,-0.22609435021877288818,0.10087053477764129639,-0.27527487277984619141,-0.06086596474051475525,-0.06079054996371269226,-0.17685048282146453857,0.00708341086283326149,0.12471394240856170654,-0.09035436064004898071,0.11866977810859680176,0.33018693327903747559,-0.27455645799636840820,-0.11011368036270141602,-0.04050354659557342529,0.46447139978408813477,-0.04927526414394378662,-0.34463107585906982422,0.00976825598627328873,-0.12019350379705429077,-0.76219993829727172852,0.03859667852520942688,0.45404741168022155762,0.22782953083515167236,0.28999164700508117676,0.12846614420413970947
0.40368178486824035645,0.16258729994297027588,0.14425639808177947998,0.82460951805114746094,-0.29321342706680297852,-0.42613050341606140137,-0.16226589679718017578,0.36004242300987243652,0.43458196520805358887,-0.86259096860885620117,0.09051346033811569214,0.06857912242412567139,0.24472670257091522217,-0.15335553884506225586,-0.04450523480772972107,0.12843519449234008789,-0.38991451263427734375,0.01631274074316024780,-0.68270665407180786133,0.47625139355659484863,0.14165470004081726074,1.29437708854675292969,-0.69790476560592651367,-0.85626786947250366211,-1.13599860668182373047,0.74268460273742675781,0.91060918569564819336,0.35774692893028259277,1.21157789230346679688,-0.23903368413448333740
0.10749800503253936768,0.19636724889278411865,0.18527887761592864990,-0.19780954718589782715,0.11321049183607101440,0.20110122859477996826,-0.36557328701019287109,0.60728406906127929688,0.14315119385719299316,-0.34322997927665710449,-0.17808760702610015869,0.00823415629565715790,-0.11863699555397033691,0.03741158917546272278,-0.07907960563898086548,0.26202496886253356934,0.37468546628952026367,0.40470713376998901367,0.19729468226432800293,-0.73825091123580932617,-0.69099396467208862305,0.96237820386886596680,-0.43951946496963500977,0.11253675818443298340,0.27714535593986511230,0.13877658545970916748,-0.15756852924823760986,-0.17539732158184051514,-0.38284727931022644043,0.12905143201351165771
-0.20481593906879425049,-0.09638527780771255493,0.04130529239773750305,-0.91246575117111206055,-0.33257803320884704590,0.56957662105560302734,1.20031440258026123047,0.23465853929519653320,-0.18002209067344665527,-0.18300528824329376221,0.41560471057891845703,-0.24827136099338531494,0.38968306779861450195,0.01347727794200181961,-0.45940297842025756836,-0.90793806314468383789,-0.58496320247650146484,0.42366462945938110352,0.38108038902282714844,1.67787337303161621094,1.30406069755554199219,-1.11831152439117431641,-0.20219945907592773438,-0.75393891334533691406,-0.43810272216796875000,0.36127981543540954590,0.31030908226966857910,-0.35791650414466857910,0.47328722476959228516,-0.08717551082372665405
0.13259980082511901855,-0.04764446243643760681,-0.13291941583156585693,-0.31445956230163574219,0.08785489201545715332,0.34224879741668701172,0.26391983032226562500,0.42228245735168457031,0.09748232364654541016,-0.14315439760684967041,-0.43150237202644348145,0.25320005416870117188,0.10920956730842590332,-0.10943481326103210449,0.10222882777452468872,0.31914487481117248535,0.57989233732223510742,0.45730042457580566406,0.09640774875879287720,-0.24001708626747131348,-0.51186406612396240234,0.61477351188659667969,-0.58373081684112548828,-0.34559586644172668457,0.17632700502872467041,-0.35697817802429199219,-0.03883707523345947266,0.34069234132766723633,-0.43264296650886535645,0.19547422230243682861
-0.21618153154850006104,0.20837791264057159424,0.17891405522823333740,-0.91899079084396362305,-0.78062176704406738281,-0.24653846025466918945,0.39718505740165710449,0.27153453230857849121,0.62129396200180053711,-0.27371287345886230469,0.34057715535163879395,-0.21094945073127746582,0.24819876253604888916,0.34828168153762817383,-0.11181656271219253540,-0.38950869441032409668,-0.26077768206596374512,0.01919869706034660339,-0.22294294834136962891,0.49064168334007263184,0.87287521362304687500,0.42326465249061584473,-0.46963930130004882812,-1.15438675880432128906,-0.30044433474540710449,0.51292008161544799805,0.44810149073600769043,-0.07306176424026489258,1.23093795776367187500,-0.31658887863159179688
-0.03786156699061393738,0.21217939257621765137,0.10292974859476089478,-0.63390302658081054688,-0.27541661262512207031,-0.22335433959960937500,-0.00365030253306031227,0.02387112006545066833,0.30634433031082153320,-0.00630634510889649391,0.05021763220429420471,0.08060070872306823730,-0.17599734663963317871,0.21391639113426208496,-0.06224796175956726074,-0.21287521719932556152,0.12527643144130706787,-0.23724114894866943359,-0.24355791509151458740,-0.22153070569038391113,0.16399288177490234375,0.35851407051086425781,-0.01977735385298728943,-0.14015462994575500488,0.18522790074348449707,-0.01949714124202728271,0.02653659693896770477,0.01383123826235532761,0.24328292906284332275,-0.07416258752346038818
-0.28585958480834960938,0.40722694993019104004,0.12922483682632446289,-1.06090486049652099609,-0.49275499582290649414,-0.26747059822082519531,-0.15069299936294555664,-0.16016381978988647461,0.47659948468208312988,0.26132455468177795410,0.49559071660041809082,-0.11382448673248291016,-0.25155350565910339355,0.28099218010902404785,-0.17246335744857788086,-0.57148551940917968750,-0.12986434996128082275,-0.19805124402046203613,-0.21119794249534606934,-0.62670683860778808594,0.53164386749267578125,0.55480504035949707031,0.22719730436801910400,0.04789476096630096436,0.33645612001419067383,0.20351240038871765137,-0.27542564272880554199,-0.32300689816474914551,0.43258368968963623047,-0.46857666969299316406
