0.78759866952896118164,0.37567973136901855469,0.74090677499771118164,-0.91210532188415527344,0.44183042645454406738,-0.67164200544357299805,0.24429920315742492676,0.20932714641094207764,0.18255022168159484863
0.49382433295249938965,-0.03806018084287643433,-1.20828545093536376953,-0.65134501457214355469,-0.43819093704223632812,-0.21154738962650299072,-0.50652295351028442383,-0.10716631263494491577,-0.51390224695205688477
0.21263243257999420166,-0.09291757643222808838,0.54516184329986572266,0.78915596008300781250,-0.61141830682754516602,-0.28662693500518798828,-0.21598669886589050293,-0.62197774648666381836,0.51692038774490356445
-0.90101689100265502930,-0.37450790405273437500,-0.88070696592330932617,0.16888204216957092285,0.06645857542753219604,0.78908890485763549805,1.02714931964874267578,0.59928244352340698242,0.91597378253936767578
-0.30859932303428649902,0.59667080640792846680,1.15874493122100830078,0.74696022272109985352,0.71369045972824096680,0.55734431743621826172,-0.12240421026945114136,-0.54366862773895263672,-0.55211120843887329102
