0.1610827,0.036116872,-0.15970722,0.017043326,-0.1122426,-0.16987123,0.16211039,0.14151476,-0.1523968,0.026079921,-0.030661654,-0.028847722,-0.08293133,0.06897755,-0.109215155,0.07383082,0.09890028,0.13606587,0.072006546,-0.17560437,-0.110698335,0.09940821,0.049717832,-0.113616474,-0.07306419,0.1826024,0.13427667,-0.06562833,-0.032150164,-0.16379173
-0.00327063,-0.1376157,-0.1412382,-0.009982152,0.028239587,-0.0746598,0.108305424,-0.110021494,0.17780551,0.12183331,-0.15391736,-0.044937383,0.008489158,0.026102701,0.04286825,0.07438525,0.013553813,-0.08700273,0.08777319,-0.17315876,-0.10512761,-0.04240201,-0.08430751,-0.052119352,-0.13656181,-0.03442728,0.043604083,-0.11323734,-0.0037685572,0.13478221
-0.018764937,0.0048046354,-0.016911227,0.03722454,0.118453346,0.17326726,0.11580939,0.1764775,0.02114895,-0.1734319,-0.08647611,0.1256714,-0.00046257547,-0.0921853,-0.14115942,-0.16310035,-0.14661765,-0.030961111,0.104221344,0.10441745,-0.16719091,0.12340465,-0.1295633,-0.005329063,-0.03697072,-0.022647168,-0.02294436,-0.14780542,-0.14180768,-0.01693049
0.0023818733,-0.08320886,0.06746453,-0.16403687,-0.009787255,0.16089529,-0.07461392,0.16823976,0.1010754,-0.17444931,0.11554916,-0.019745987,-0.08080704,0.14451502,-0.1488912,0.027349224,-0.030550204,0.13662456,0.055012465,0.09341078,0.073582105,-0.034131084,-0.024657156,-0.11678309,0.1365427,0.15790476,0.13818723,-0.11234894,0.024451083,-0.116624035
-0.100488015,-0.106022894,0.06418781,-0.10924099,-0.0075253146,0.007208888,0.117908314,-0.14291884,-0.17600684,-0.092000656,0.12771711,-0.06755792,0.15297875,0.06815854,0.025072932,-0.012881692,-0.047335967,0.01368595,-0.04790074,-0.009778359,0.010041792,-0.15697931,-0.11562687,0.0986731,-0.20262827,-0.03181541,0.16134414,0.042085685,-0.018507782,-0.17573409
0.090474516,-0.1297673,-0.050484333,-0.061609976,-0.029761905,0.0016285747,0.15076925,0.018991148,0.1234824,0.1227365,-0.11549777,0.08034213,-0.12988651,-0.07570737,0.05520275,0.05109163,0.12811612,-0.06605278,-0.0047267764,0.08718081,-0.18702911,0.12082589,-0.16665447,-0.036100317,-0.07412867,-0.11081723,0.009004639,0.13221683,-0.0719525,-0.12210056
-0.067548804,-0.18079074,0.08317619,-0.08784142,-0.12329939,-0.10537733,0.105030894,0.09476816,0.12014947,0.07170759,-0.061008338,-0.051793065,0.05353677,0.15093774,0.050422646,-0.0908381,-0.09025258,-0.17619865,0.037157807,-0.10568918,-0.16798201,0.1545151,-0.12640451,-0.040021382,0.030804476,-0.0016508966,-0.13053451,-0.1570973,0.13609016,0.022745486
0.15145068,-0.060993403,0.054473676,-0.04186786,-0.009447348,-0.1113556,0.0618025,0.05592464,-0.022564935,-0.0359058,-0.11258515,0.12551363,-0.13626376,0.07565949,-0.060676504,-0.09224489,0.028744038,-0.098055996,0.04000405,0.032878973,-0.14032286,0.025289254,0.07051349,0.054252714,-0.0431146,-0.15655276,-0.03525744,0.054559503,-0.075331904,0.06290927
0.121527664,-0.09540825,0.0010750178,0.07573161,0.015770026,0.015441305,0.022631478,-0.14135568,0.035577834,0.120371714,0.16449125,0.10803856,0.024881966,0.08441636,-0.08965344,-0.14644255,-0.15227844,0.18614286,0.118726335,-0.12249906,0.07709159,0.14392647,0.19104977,0.17998433,0.16423114,-0.03409972,-0.05617603,0.15965271,0.112063274,-0.102589875
