0.16109222,0.03632556,-0.15876414,0.016792497,-0.11421938,-0.17014039,0.16221622,0.13888572,-0.18186435,0.034177862,-0.030749705,-0.029995412,-0.08355432,0.07020801,-0.10814006,0.06768458,0.092529215,0.13079311,0.06833837,-0.18066427,-0.11840677,0.091392815,0.03982429,-0.1421875,-0.1048922,0.1720925,0.123762414,-0.07863462,-0.045267437,-0.17383878
-0.0032764971,-0.13748911,-0.14082982,-0.010059766,0.02741261,-0.07476965,0.10833543,-0.11110139,0.16566813,0.12511806,-0.15396169,-0.045439575,0.008240086,0.026639313,0.043304276,0.07168251,0.010951573,-0.0890815,0.08639224,-0.17513408,-0.1082128,-0.045702223,-0.08891906,-0.063861825,-0.14963989,-0.038834427,0.039030775,-0.118935175,-0.009362209,0.13071421
-0.018768195,0.0050741825,-0.015746498,0.036953542,0.11608787,0.1729427,0.11594481,0.17337681,-0.013199396,-0.16401032,-0.08655426,0.12431656,-0.0011835338,-0.09074783,-0.13990875,-0.17085697,-0.15408346,-0.03701501,0.10014296,0.09871628,-0.1760789,0.113888636,-0.14286263,-0.03852969,-0.07402451,-0.03516322,-0.035846062,-0.16383262,-0.15764117,-0.028564906
0.0023750633,-0.082922935,0.06878212,-0.16432413,-0.012329704,0.16054702,-0.07447083,0.1648645,0.065756634,-0.16476604,0.11551359,-0.021080697,-0.081502534,0.1459969,-0.14753732,0.018741218,-0.038805783,0.1299493,0.050587457,0.08718907,0.06375311,-0.044747166,-0.039614227,-0.15187854,0.097673185,0.14397655,0.123591416,-0.13027246,0.0069064046,-0.12943658
-0.10050408,-0.10638281,0.06239931,-0.10878836,-0.0039757933,0.00768255,0.11769188,-0.13816732,-0.12517805,-0.10601386,0.12779537,-0.06554223,0.15405236,0.0660302,0.023118729,-0.0013880271,-0.036180217,0.022916775,-0.041684132,-0.0012796809,0.023319177,-0.14272831,-0.09521763,0.14760856,-0.14790007,-0.013030811,0.18099219,0.06665146,0.005648182,-0.15812264
0.09044851,-0.13005333,-0.051828537,-0.06123904,-0.026922157,0.0020054397,0.15058856,0.022678502,0.16519096,0.11167657,-0.11543268,0.08186915,-0.12906945,-0.07737695,0.053701304,0.061547082,0.13835284,-0.057686497,0.0011707365,0.09550163,-0.17466614,0.1338727,-0.14867385,0.009836238,-0.02542311,-0.0941139,0.0262582,0.15341137,-0.050974414,-0.10650651
-0.06752516,-0.18095793,0.08241287,-0.08768377,-0.12183903,-0.10518118,0.10497213,0.096660934,0.14005727,0.06622389,-0.06097242,-0.051018216,0.05394141,0.15008308,0.04964075,-0.08638945,-0.08583451,-0.1726325,0.03943081,-0.102469675,-0.16278091,0.16009858,-0.11859653,-0.020986456,0.05210376,0.0057762293,-0.12283081,-0.14753772,0.14557213,0.029749477
0.15145019,-0.06120863,0.053762812,-0.041713335,-0.007698545,-0.11114755,0.06174857,0.057280447,0.0031561102,-0.04106106,-0.112536825,0.12630428,-0.13588957,0.07479326,-0.061390884,-0.083226286,0.03747141,-0.09135687,0.04451378,0.040209576,-0.1296511,0.036211867,0.086769365,0.09597075,-0.0036412529,-0.14209016,-0.018922606,0.07437593,-0.056417912,0.076186806
0.12159743,-0.095319055,0.0018179772,0.07553397,0.014550801,0.015277539,0.022801755,-0.14303967,0.018564582,0.12642711,0.1645212,0.10734693,0.024485186,0.08526901,-0.08881204,-0.14819166,-0.15389901,0.18464255,0.11779238,-0.123319775,0.07501046,0.14217983,0.19041796,0.17664045,0.15398777,-0.03720342,-0.058624744,0.15635987,0.10829092,-0.10579025
