0.12230847775936126709,-0.40347763895988464355,-0.16162452101707458496,1.41014468669891357422,0.33810880780220031738,-0.56623637676239013672,0.27202013134956359863,-0.95206922292709350586,-0.27370280027389526367,-0.00356222409754991531,0.02967559359967708588,0.04882617667317390442,0.01396641135215759277,-0.12838242948055267334,0.07961212098598480225,0.06998087465763092041,-0.78059822320938110352,-0.66813045740127563477,0.21447721123695373535,1.22668588161468505859,0.21307101845741271973,-1.00954699516296386719,0.77005612850189208984,0.09592700004577636719,-1.11841225624084472656,0.38185352087020874023,0.76098793745040893555,-0.01066917460411787033,0.46249908208847045898,-0.51406145095825195312
0.14837363362312316895,-0.51544064283370971680,-0.22172088921070098877,0.98329609632492065430,0.47653532028198242188,-0.18134123086929321289,0.15844394266605377197,-0.56711572408676147461,0.10089756548404693604,-0.18588142096996307373,-0.25480780005455017090,-0.02666298113763332367,0.06227605417370796204,-0.14267997443675994873,0.21981725096702575684,0.31555199623107910156,-0.24728593230247497559,-0.07412003725767135620,0.08333282172679901123,0.37552785873413085938,-0.07152694463729858398,-0.26106774806976318359,0.03804602846503257751,-0.21953982114791870117,-0.96388691663742065430,0.09331402182579040527,0.50419276952743530273,0.28604036569595336914,0.28475445508956909180,0.16484415531158447266
0.18116188049316406250,0.21357716619968414307,0.07173398882150650024,0.77459114789962768555,0.14531511068344116211,-0.30573603510856628418,-0.38295301795005798340,0.28238788247108459473,0.77644109725952148438,-1.09846949577331542969,0.20243065059185028076,-0.13298825919628143311,0.08778315037488937378,-0.22822465002536773682,0.08112488687038421631,-0.14360162615776062012,-0.35771387815475463867,0.03115623071789741516,-0.67370790243148803711,0.37189280986785888672,-0.04204947501420974731,1.21150922775268554688,-0.54990321397781372070,-1.11522269248962402344,-1.43280518054962158203,0.76817262172698974609,0.78084129095077514648,0.80395758152008056641,1.43530631065368652344,-0.05875844880938529968
0.28974932432174682617,0.04976660385727882385,0.08991307765245437622,-0.13523423671722412109,0.10536979883909225464,0.23034554719924926758,-0.49597543478012084961,0.68220746517181396484,0.15975390374660491943,-0.26221054792404174805,-0.04551576077938079834,-0.13963188230991363525,-0.26184546947479248047,0.12503392994403839111,-0.12501089274883270264,0.28490418195724487305,0.36178374290466308594,0.48621612787246704102,0.05440446361899375916,-0.92913424968719482422,-0.61346918344497680664,0.86398732662200927734,-0.46361526846885681152,-0.15844996273517608643,0.25127738714218139648,0.17400255799293518066,-0.20715264976024627686,0.03537526354193687439,-0.33251047134399414062,0.19916121661663055420
-0.53502213954925537109,-0.01151042617857456207,0.29899507761001586914,-0.94222444295883178711,-0.40830567479133605957,0.40973991155624389648,1.32243049144744873047,0.14668585360050201416,-0.03550280258059501648,-0.43366590142250061035,0.42065435647964477539,-0.07696580141782760620,0.35822999477386474609,-0.02630348876118659973,-0.25154694914817810059,-0.79989600181579589844,-0.22061598300933837891,0.60770404338836669922,0.25545439124107360840,1.58861649036407470703,1.08278167247772216797,-0.87115448713302612305,-0.32517492771148681641,-0.57098114490509033203,-0.52940398454666137695,0.39758729934692382812,0.37333616614341735840,-0.46004113554954528809,0.56971383094787597656,-0.13736598193645477295
0.26996728777885437012,-0.26479130983352661133,-0.19930671155452728271,-0.36016881465911865234,0.12832874059677124023,0.46525040268898010254,0.32378891110420227051,0.40671643614768981934,0.03949127346277236938,-0.04286541044712066650,-0.35578811168670654297,0.10395294427871704102,-0.11636096239089965820,-0.01629247888922691345,0.06928311288356781006,0.33936631679534912109,0.67033213376998901367,0.72558861970901489258,-0.01892516575753688812,-0.61649137735366821289,-0.53334754705429077148,0.45558303594589233398,-0.57766526937484741211,-0.56504064798355102539,0.17324440181255340576,-0.36221078038215637207,-0.12425705790519714355,0.47505009174346923828,-0.51221406459808349609,0.27349048852920532227
-0.35347965359687805176,0.32127892971038818359,0.26647150516510009766,-0.97066271305084228516,-0.77190428972244262695,-0.16181388497352600098,0.34294706583023071289,0.50431573390960693359,0.65849244594573974609,-0.40351432561874389648,0.41575402021408081055,-0.21746890246868133545,0.24004726111888885498,0.24380111694335937500,-0.07945866882801055908,-0.60256749391555786133,-0.12808614969253540039,0.04922617599368095398,-0.29891470074653625488,0.59200996160507202148,0.60347622632980346680,0.32374176383018493652,-0.43840339779853820801,-1.08285796642303466797,-0.28999608755111694336,0.47661221027374267578,0.28708368539810180664,0.04782710596919059753,1.35859012603759765625,-0.20633046329021453857
0.03041630610823631287,0.21449290215969085693,0.09304705262184143066,-0.58274894952774047852,-0.33674633502960205078,-0.16890016198158264160,-0.03993790969252586365,0.23323021829128265381,0.19698123633861541748,0.03746291995048522949,0.05527923256158828735,0.09639621526002883911,-0.11377874761819839478,0.18574526906013488770,-0.11864146590232849121,-0.30003148317337036133,0.07716760039329528809,-0.28001692891120910645,-0.25534123182296752930,-0.11688122898340225220,0.06953644752502441406,0.24739648401737213135,0.02866959944367408752,-0.03073627874255180359,0.28093111515045166016,-0.09895794093608856201,-0.06618566811084747314,0.01591865718364715576,0.21182198822498321533,-0.04315572604537010193
-0.15033683180809020996,0.47571042180061340332,0.14479297399520874023,-0.86364752054214477539,-0.66773623228073120117,-0.26303744316101074219,-0.27860155701637268066,0.22024285793304443359,0.29212939739227294922,0.27575650811195373535,0.48583328723907470703,-0.02083379030227661133,-0.05547077953815460205,0.19790543615818023682,-0.24949461221694946289,-0.67872488498687744141,-0.23608961701393127441,-0.37227281928062438965,-0.28001925349235534668,-0.30458387732505798340,0.39914780855178833008,0.50129950046539306641,0.24405942857265472412,0.25037795305252075195,0.47820723056793212891,0.09691578894853591919,-0.35935312509536743164,-0.34214079380035400391,0.46259224414825439453,-0.43791142106056213379
