0.16081894934177398682,0.03559947013854980469,-0.15861159563064575195,0.01688225381076335907,-0.10829762369394302368,-0.17872732877731323242,0.16209051012992858887,0.13879828155040740967,-0.18186511099338531494,0.03425528481602668762,-0.03079420700669288635,-0.03001667745411396027,-0.08287688344717025757,0.07237716764211654663,-0.10761669278144836426,0.63707429170608520508,0.32046762108802795410,-0.11557940393686294556,-0.19219094514846801758,-0.12759158015251159668,-0.49194788932800292969,-0.10674531012773513794,-0.14858923852443695068,0.10912998020648956299,0.33177077770233154297,0.18587268888950347900,0.35830983519554138184,0.19763576984405517578,0.19543524086475372314,0.07878780364990234375
-0.00333652854897081852,-0.13788171112537384033,-0.14071770012378692627,-0.01000422053039073944,0.02841350995004177094,-0.08236091583967208862,0.10824601352214813232,-0.11080220341682434082,0.16551180183887481689,0.12508617341518402100,-0.15379841625690460205,-0.04540201649069786072,0.00847281608730554581,0.02785035595297813416,0.04360034689307212830,1.46483886241912841797,0.49101144075393676758,-0.74162572622299194336,0.28795340657234191895,-0.44235801696777343750,-0.61802095174789428711,-0.25890836119651794434,-0.41444641351699829102,0.03832778334617614746,0.18303632736206054688,-0.10752258449792861938,0.23500588536262512207,0.00929452385753393173,-0.00681673176586627960,0.05666240677237510681
-0.01874285563826560974,0.00428080931305885315,-0.01575084775686264038,0.03703330829739570618,0.11609782278537750244,0.16142675280570983887,0.11585237830877304077,0.17348353564739227295,-0.01304123178124427795,-0.16370448470115661621,-0.08635663986206054688,0.12420209497213363647,-0.00091325986431911588,-0.09113626927137374878,-0.13967093825340270996,0.27942472696304321289,0.19544905424118041992,0.27111575007438659668,-1.19923818111419677734,0.80205285549163818359,0.00884691346436738968,-0.82241463661193847656,0.36217048764228820801,0.61709159612655639648,1.13336038589477539062,-0.11052804440259933472,0.03187736496329307556,-0.34520608186721801758,-0.03057598695158958435,0.45354852080345153809
0.00236219726502895355,-0.08335769921541213989,0.06865859031677246094,-0.16408051550388336182,-0.01688741147518157959,0.15451762080192565918,-0.07442143559455871582,0.16469967365264892578,0.06576172262430191040,-0.16476263105869293213,0.11544749140739440918,-0.02111014351248741150,-0.08158680051565170288,0.14470693469047546387,-0.14785948395729064941,-0.15101265907287597656,0.11253132671117782593,0.70868539810180664062,-1.60769903659820556641,0.96961224079132080078,0.93167132139205932617,-0.27576881647109985352,0.30360984802246093750,0.23587368428707122803,0.35263377428054809570,0.08586749434471130371,0.51928132772445678711,0.52498227357864379883,-0.03650596737861633301,0.10496562719345092773
-0.10024214535951614380,-0.10553029179573059082,0.06236656755208969116,-0.10884904861450195312,-0.00693607889115810394,0.01368509139865636826,0.11759249866008758545,-0.13757331669330596924,-0.12470480054616928101,-0.10576656460762023926,0.12782764434814453125,-0.06552872061729431152,0.15352515876293182373,0.06450811028480529785,0.02306941151618957520,-0.95199120044708251953,0.02980459108948707581,0.68492972850799560547,0.30457898974418640137,-0.16861081123352050781,-1.01796972751617431641,0.08943277597427368164,-0.06539882719516754150,0.22451637685298919678,0.51342523097991943359,0.57492226362228393555,0.55158489942550659180,-0.19371275603771209717,-0.02884574979543685913,0.13759279251098632812
0.09046926349401473999,-0.12924706935882568359,-0.05179016664624214172,-0.06132349744439125061,-0.03179830312728881836,0.00813254155218601227,0.15044760704040527344,0.02291886694729328156,0.16353584825992584229,0.11153318732976913452,-0.11525703966617584229,0.08180633932352066040,-0.12939463555812835693,-0.07817393541336059570,0.05338877439498901367,-0.58313268423080444336,0.31094110012054443359,0.38783359527587890625,0.14329193532466888428,0.00802720524370670319,-0.87469375133514404297,0.90876305103302001953,-0.49149262905120849609,-0.09462581574916839600,-0.06371214240789413452,0.51263195276260375977,0.90638244152069091797,0.83291941881179809570,-0.07020226120948791504,0.03255399689078330994
-0.06737777590751647949,-0.18033376336097717285,0.08238710463047027588,-0.08766565471887588501,-0.11948983371257781982,-0.10087947547435760498,0.10489490628242492676,0.09676682949066162109,0.14043729007244110107,0.06634185463190078735,-0.06085206568241119385,-0.05090842023491859436,0.05388910323381423950,0.14944857358932495117,0.04984649643301963806,-0.17540346086025238037,-0.09695168584585189819,-0.30302536487579345703,1.38209891319274902344,-0.50943851470947265625,-1.15902960300445556641,0.02189446613192558289,-0.20902919769287109375,-0.32676532864570617676,0.38345789909362792969,0.21773748099803924561,-0.53330534696578979492,-1.15704393386840820312,0.11474276334047317505,0.02204215899109840393
0.15142484009265899658,-0.06029163300991058350,0.05376490950584411621,-0.04177081584930419922,-0.00690258806571364403,-0.10087080299854278564,0.06169192492961883545,0.05765471979975700378,-0.00358401751145720482,-0.04100926592946052551,-0.11245505511760711670,0.12618443369865417480,-0.13598898053169250488,0.07333650439977645874,-0.06152823567390441895,-1.04590988159179687500,-0.22909522056579589844,0.32724767923355102539,0.37588202953338623047,0.11663868278264999390,-0.19914163649082183838,0.14443312585353851318,0.28809162974357604980,-0.00700512668117880821,0.07958433032035827637,0.08816146850585937500,-0.22381454706192016602,-0.39877384901046752930,-0.04715413600206375122,0.18216815590858459473
0.12159785628318786621,-0.09491006284952163696,0.00181589287240058184,0.07547841221094131470,0.01590334437787532806,0.02147871442139148712,0.02277704700827598572,-0.14353947341442108154,0.01457567699253559113,0.12634786963462829590,0.16439954936504364014,0.10724373906850814819,0.02429765462875366211,0.08259078860282897949,-0.08908174932003021240,-1.90871322154998779297,-0.71870267391204833984,1.00523126125335693359,0.25067988038063049316,0.50038236379623413086,0.32749018073081970215,-0.05639035999774932861,0.62760615348815917969,-0.08932916820049285889,0.15835973620414733887,0.10281892120838165283,-0.58165329694747924805,-0.68497657775878906250,0.10251393169164657593,0.07662009447813034058
