-0.00511597935110330582,0.57342720031738281250,-0.23509298264980316162,-1.36947166919708251953,0.25119638442993164062,-0.49655649065971374512,1.72947072982788085938,0.21891249716281890869,0.33215126395225524902
0.21073947846889495850,0.65444862842559814453,-1.15810132026672363281,-0.64990526437759399414,-0.30138683319091796875,0.69946813583374023438,0.05078968778252601624,-0.51461571455001831055,-0.95977938175201416016
-0.30240499973297119141,-0.35353228449821472168,0.68040460348129272461,0.93168699741363525391,-0.83951860666275024414,-1.02125501632690429688,-0.71532934904098510742,-0.23186410963535308838,0.50061798095703125000
-0.32146754860877990723,-1.08151662349700927734,-0.25522482395172119141,0.48942244052886962891,0.65467435121536254883,0.74857169389724731445,-0.24249711632728576660,0.53652244806289672852,1.38204979896545410156
0.70268070697784423828,0.67402046918869018555,1.32382369041442871094,0.73980879783630371094,0.40739703178405761719,0.24637804925441741943,-0.39591816067695617676,-0.47314110398292541504,-0.70562958717346191406
