0.14336184,0.016275171,-0.17683606,-0.0028007121,-0.14602105,-0.1932572,0.13719566,0.07837157,-0.2072197,0.011621855,-0.049357403,-0.053026445,-0.11024718,0.046106607,-0.13163544,-0.0132271545,-0.002630525,0.040201366,-0.021689212,-0.31624514,-0.24150847,-0.020830031,-0.1635065,-0.27797678,-0.24101946,0.08367556,0.020191927,-0.20663615,-0.16499509,-0.2910172
-0.014948668,-0.1509729,-0.15281117,-0.022389896,0.0068663354,-0.08938388,0.09450844,-0.14827469,0.13292733,0.107842565,-0.16475685,-0.05873577,-0.00715022,0.012758238,0.029289791,0.018825112,-0.052186225,-0.14876957,0.029248333,-0.26111186,-0.1839821,-0.11063054,-0.22480504,-0.19605856,-0.26242295,-0.09186668,-0.020763868,-0.19214943,-0.07901217,0.06017082
-0.031283867,-0.008827149,-0.02699772,0.02573883,0.09211602,0.15335791,0.09380526,0.14636433,-0.057172514,-0.18873829,-0.10403947,0.1024609,-0.026774032,-0.11363772,-0.15971309,-0.2305651,-0.22132783,-0.09677751,0.045590233,0.0018575988,-0.27577204,0.01718991,-0.25759554,-0.19564438,-0.23249267,-0.1195391,-0.13499409,-0.28432706,-0.27337575,-0.13164426
0.014836768,-0.06761844,0.08603886,-0.14366095,0.009916495,0.16923629,-0.072075844,0.24826628,0.047585562,-0.16419537,0.11421233,-0.025817385,-0.087322704,0.1439474,-0.13938725,0.07006862,0.030032698,0.2067385,0.14098848,0.19166721,0.12238272,-0.019924287,0.19765513,-0.10889027,0.08859768,0.13858125,0.104392335,-0.15311271,-0.011342075,-0.10325914
-0.10245711,-0.10968716,0.05696793,-0.115572415,-0.007840938,0.011231623,0.12894444,-0.17257589,-0.11856392,-0.101169035,0.13800968,-0.049931686,0.17257132,0.07964368,0.027765274,-0.0068959505,-0.048911776,0.0025701367,-0.071180746,-0.023242516,0.032470535,-0.107219085,-0.19075029,0.11220524,-0.118277244,0.032568775,0.24841246,0.15097009,0.07871934,-0.12425244
0.09949822,-0.12030268,-0.04381096,-0.052491784,-0.009894208,0.016715458,0.16987279,0.045175083,0.17426544,0.1252718,-0.10087191,0.10061073,-0.10710002,-0.058285028,0.06941109,0.102847815,0.18448891,-0.016136233,0.041166577,0.16511726,-0.10067148,0.21170849,-0.07261287,0.05053106,0.047370803,-0.028954707,0.10754071,0.2543313,0.042317558,-0.027073208
-0.07860364,-0.19457252,0.067407645,-0.10550984,-0.14331521,-0.11471918,0.100731015,0.026712019,0.14730772,0.062313877,-0.061343405,-0.048371114,0.057055056,0.14979793,0.040654164,-0.13260752,-0.14664052,-0.23924969,-0.038934447,-0.19929707,-0.22160716,0.13119192,-0.3250448,-0.07762957,0.041231263,0.0042149085,-0.11247861,-0.13492948,0.15213759,-0.0020438205
0.15455906,-0.058094237,0.054792278,-0.042273358,-0.00435348,-0.105535105,0.06904574,0.04613636,0.03261036,-0.028615382,-0.10470172,0.1376875,-0.12283271,0.0848077,-0.05614358,-0.071372,0.049601845,-0.084203936,0.042901464,0.047790132,-0.110429004,0.062401824,0.06719822,0.16685724,0.07318848,-0.10936486,0.023000976,0.12541513,-0.010274262,0.10495671
0.12980033,-0.08544328,0.010728642,0.083824165,0.025542527,0.022028856,0.025708482,-0.116397135,0.048675027,0.1383251,0.16804603,0.11209504,0.029558482,0.08942156,-0.083521284,-0.11596993,-0.111809,0.22580843,0.15440772,-0.077606566,0.1066348,0.16022748,0.28427964,0.29328766,0.23112696,-0.020969937,-0.04321393,0.17513971,0.124787346,-0.082358725
