0.15330914,0.028253518,-0.16554704,0.009411329,-0.12598039,-0.17891294,0.15212314,0.12343988,-0.19958289,0.023140458,-0.0398721,-0.04167673,-0.096304506,0.05925713,-0.11707011,0.028823318,0.050287455,0.091306634,0.031589337,-0.23231931,-0.17114067,0.04164641,-0.01743098,-0.22891685,-0.18934198,0.12483431,0.06909595,-0.14458735,-0.10685208,-0.22673385
-0.007920556,-0.14225851,-0.14453644,-0.013756435,0.020680893,-0.0802403,0.10246932,-0.11596494,0.14458746,0.11740622,-0.15967616,-0.052985337,-0.00012972677,0.01964201,0.03811491,0.048497736,-0.013856443,-0.11146196,0.06730307,-0.20319901,-0.13873881,-0.07517905,-0.11584423,-0.13504407,-0.2156372,-0.069202565,0.004174827,-0.1607944,-0.04887626,0.09864216
-0.025050806,-0.001321805,-0.020481072,0.03236468,0.10651517,0.16475344,0.10670876,0.17105997,-0.046126947,-0.17585479,-0.095541686,0.11257507,-0.014349723,-0.1016166,-0.14760295,-0.20345426,-0.18795899,-0.06677049,0.075564146,0.060237143,-0.22079629,0.06953201,-0.17309383,-0.14041047,-0.17266859,-0.082286984,-0.090626985,-0.22954822,-0.21986383,-0.07753682
0.0052337693,-0.07964258,0.073077634,-0.15878588,-0.007749422,0.16132268,-0.07399033,0.19300145,0.039223187,-0.16678157,0.11456711,-0.0235024,-0.08455636,0.14508136,-0.14526637,0.029706515,-0.022682624,0.14954346,0.075916156,0.11423306,0.07883429,-0.03685639,0.018583292,-0.1690559,0.072546765,0.13934086,0.11465534,-0.14195932,-0.0034450754,-0.12527175
-0.099670775,-0.10570164,0.061948355,-0.10961241,-0.0028023673,0.010421407,0.121602565,-0.15067324,-0.10686985,-0.10105114,0.13207419,-0.059195675,0.16117813,0.070795916,0.024940189,0.0052906196,-0.03152839,0.024166971,-0.044871155,-5.764207e-07,0.033172913,-0.12873004,-0.11434935,0.17594135,-0.10913187,0.00837419,0.20899439,0.10132821,0.03686729,-0.14032799
0.09519987,-0.12514207,-0.047933433,-0.056995526,-0.019553825,0.007998755,0.15793695,0.02888323,0.17619847,0.11933108,-0.10874142,0.09052366,-0.119544424,-0.069531806,0.05965139,0.08449355,0.16292048,-0.035157308,0.021633863,0.12574044,-0.14180957,0.16591692,-0.12236637,0.05478462,0.025124593,-0.062335208,0.06410455,0.19942829,-0.008294867,-0.07143347
-0.07001687,-0.18379776,0.07886346,-0.09211317,-0.12610517,-0.10643032,0.10384238,0.07569655,0.15769821,0.066834725,-0.060897138,-0.049795818,0.055446222,0.14999433,0.047250796,-0.09592392,-0.099335745,-0.18862529,0.019116864,-0.12520544,-0.17697318,0.15155879,-0.16374923,-0.012955198,0.066093236,0.006950152,-0.118427426,-0.14132132,0.15031658,0.02354822
0.15412566,-0.05865477,0.05493144,-0.041171085,-0.004756571,-0.10721544,0.0659887,0.04955854,0.027092453,-0.033984985,-0.107592955,0.13347732,-0.12780847,0.08078414,-0.058366537,-0.073019266,0.047006372,-0.08426878,0.04694611,0.04707331,-0.1171701,0.051065575,0.07508856,0.1449985,0.046758495,-0.12234313,0.0047547985,0.103370346,-0.029377809,0.09357453
0.12442546,-0.092444085,0.003862859,0.07723776,0.017472403,0.018031456,0.025022864,-0.14187181,0.0341748,0.13131365,0.16729853,0.11143278,0.028977966,0.08890632,-0.086472966,-0.13774925,-0.1423816,0.19500194,0.12528725,-0.11285889,0.085938685,0.1519713,0.19566154,0.22061424,0.19184953,-0.025587952,-0.045800243,0.171926,0.12295703,-0.09453472
