0.13882206,-0.18212286,0.034172785,-0.03075645,-0.030044617,-0.083574586,0.07021003,-0.10813933,0.066930115,0.09232924,0.13069966,0.06826652,-0.18070011,-0.11843531,0.09116203,0.038213022,-0.1424232,-0.10512977,0.17175654,0.123021744,-0.079606935,-0.045951143,-0.17391981,-0.0032816136,-0.13748911,-0.14082982,-0.010059766,0.02741261,-0.07476965,0.10833543
-0.11110353,0.16566235,0.12511806,-0.15396169,-0.04543985,0.008238226,0.02663777,0.0433019,0.07164727,0.010936224,-0.089083195,0.0863921,-0.17513408,-0.10821294,-0.04570377,-0.088934325,-0.06387054,-0.14964175,-0.038836293,0.03902641,-0.11894083,-0.00936959,0.13069588,-0.018768672,0.005074141,-0.015750473,0.036949612,0.11608787,0.1729427,0.11594481
0.1733384,-0.013204067,-0.16401032,-0.08655426,0.12431572,-0.0011835338,-0.09074783,-0.13990875,-0.17086242,-0.15409411,-0.037032753,0.10012478,0.0987071,-0.17608036,0.1138865,-0.14286602,-0.03859806,-0.074028835,-0.035166577,-0.03584711,-0.16383293,-0.15764147,-0.028569113,0.0023610825,-0.082938865,0.06877555,-0.16432743,-0.012321427,0.16055928,-0.07447055
0.16486505,0.06611993,-0.16476607,0.115514204,-0.021068051,-0.08150236,0.14599605,-0.14753732,0.01959111,-0.03822532,0.13037853,0.050964583,0.087727875,0.064477704,-0.043904472,-0.038396347,-0.150456,0.09892675,0.1449599,0.12492179,-0.12878387,0.008142789,-0.12870277,-0.1005042,-0.10638698,0.062393818,-0.10879836,-0.0039832587,0.0076805535,0.117691524
-0.13801149,-0.1253394,-0.106013805,0.12778977,-0.06562903,0.15399925,0.066020206,0.023118641,-0.0013590866,-0.036091547,0.022906916,-0.041689843,-0.0012828454,0.023295196,-0.14281046,-0.095692866,0.14742732,-0.14816748,-0.013109957,0.18060945,0.06595256,0.00516923,-0.1582206,0.090443216,-0.13004407,-0.051826287,-0.06125662,-0.027036933,0.0019970487,0.15058856
0.022792347,0.16353038,0.1116829,-0.115425944,0.08188527,-0.12906097,-0.07737953,0.05369921,0.06028455,0.13697228,-0.058773525,0.000292276,0.09399349,-0.17656606,0.1319976,-0.15097469,0.0025163288,-0.031040672,-0.09615689,0.024131019,0.150974,-0.05337,-0.108393215,-0.067523025,-0.1809581,0.08241288,-0.08768375,-0.121839106,-0.10518125,0.10497213
0.09668648,0.14012967,0.066223875,-0.06097242,-0.05102002,0.053937882,0.15008232,0.049640495,-0.086384125,-0.085824,-0.17261824,0.03944479,-0.102457434,-0.16277872,0.160095,-0.118565716,-0.02076992,0.052306324,0.0058165076,-0.12285083,-0.14757867,0.14552668,0.029730143,0.15146802,-0.061206277,0.053778216,-0.04175037,-0.008119283,-0.11119574,0.061746757
0.057723735,-0.0037662445,-0.041061327,-0.11254417,0.12625822,-0.13591263,0.07479434,-0.061391212,-0.0880862,0.03279855,-0.09483943,0.042065978,0.035854075,-0.13555941,0.030398335,0.07776368,0.072268516,-0.022982199,-0.14967206,-0.028144551,0.06340942,-0.06661714,0.06930171,0.121587574,-0.0953314,0.001800515,0.075494245,0.01430977,0.015250695,0.0227972
-0.14353028,0.014348185,0.12642711,0.1645201,0.10730814,0.024465496,0.085264735,-0.088818625,-0.1512971,-0.1569994,0.18213779,0.11589614,-0.12620144,0.0714308,0.13787411,0.18250386,0.15964194,0.14145005,-0.04185682,-0.064072885,0.14990233,0.10231085,-0.10986931,0.16413733,0.08821228,0.099527664,-0.11443318,0.0523805,-0.064003654,0.14265554
